{
  "architecture": [
    6,
    8,
    1
  ],
  "activations": {
    "hidden": "sigmoid",
    "output": "linear"
  },
  "training": {
    "learning_rate": 0.1,
    "max_epochs": 1000,
    "tolerance": 1e-05
  },
  "weights": {
    "input_hidden": [
      [
        0.3586926655996283,
        -0.08002690755143549,
        0.46951488915646333,
        0.2584154094082225,
        -0.5313465777235933,
        0.622735836739525,
        0.34191212895114365,
        0.3745460950161703
      ],
      [
        -0.486913550910418,
        -0.064960055750801,
        -0.16916509539772762,
        0.5587665329587721,
        0.18836365789530185,
        0.4225941497827548,
        -0.0740882048952789,
        -0.3571283440211912
      ],
      [
        0.0714682623694588,
        -0.5710972687817583,
        0.42896989876660085,
        0.17238916437363982,
        0.3379161728232326,
        -0.19047021791294183,
        0.6162883789302327,
        0.5147163702128255
      ],
      [
        0.3644895564477233,
        -0.3998117815936808,
        -0.04357243413514833,
        -0.5973010785810935,
        -0.4526413060405981,
        0.23966733831885156,
        0.3204688876309013,
        0.6121139248595195
      ],
      [
        -0.22804813727821222,
        -0.16960805789772698,
        -0.03986079980003754,
        -0.4065774292708634,
        -0.484546489964432,
        -0.031809718452627145,
        -0.35755959415973926,
        0.22233870991298066
      ],
      [
        -0.08228745401436288,
        0.4355780044275428,
        0.2622085682809596,
        -0.2456697339330261,
        0.4350301972241437,
        0.399030210672479,
        -0.14732538440381593,
        -0.27714356749556623
      ]
    ],
    "hidden_output": [
      [
        0.4473683539408284
      ],
      [
        -0.09981108992683463
      ],
      [
        0.5855879510708766
      ],
      [
        0.32230064182282936
      ],
      [
        -0.6627056158255124
      ],
      [
        0.7766880478484317
      ],
      [
        0.426439347639217
      ],
      [
        0.4671410543681962
      ]
    ]
  },
  "biases": {
    "hidden": [
      0.0,
      0.0,
      0.0,
      0.0,
      0.0,
      0.0,
      0.0,
      0.0
    ],
    "output": [
      0.0
    ]
  },
  "counts": {
    "weights_input_hidden": 48,
    "weights_hidden_output": 8,
    "total_weights": 56,
    "bias_hidden": 8,
    "bias_output": 1,
    "total_biases": 9,
    "total_parameters": 65
  },
  "seed": 42
}